<?xml version="1.0"?>
<opencv_storage>
<cascade>
  <stageType>BOOST</stageType>
  <featureType>HAAR</featureType>
  <height>24</height>
  <width>24</width>
  <stageParams>
    <boostType>GAB</boostType>
    <minHitRate>9.9900001287460327e-01</minHitRate>
    <maxFalseAlarm>5.0000000000000000e-01</maxFalseAlarm>
    <weightTrimRate>9.4999999999999996e-01</weightTrimRate>
    <maxDepth>1</maxDepth>
    <maxWeakCount>100</maxWeakCount></stageParams>
  <featureParams>
    <maxCatCount>0</maxCatCount>
    <featSize>1</featSize>
    <mode>ALL</mode></featureParams>
  <stageNum>20</stageNum>
  <stages>
    <!-- stage 0 -->
    <_>
      <maxWeakCount>2</maxWeakCount>
      <stageThreshold>3.4472383558750153e-02</stageThreshold>
      <weakClassifiers>
        <_>
          <internalNodes>
            0 -1 15 3.1467840075492859e-02</internalNodes>
          <leafValues>
            -8.6633664369583130e-01 9.4221103191375732e-01</leafValues></_>
        <_>
          <internalNodes>
            0 -1 80 1.1497360654175282e-02</internalNodes>
          <leafValues>
            -9.0308243036270142e-01 9.0080899000167847e-01</leafValues></_></weakClassifiers></_>
    <!-- stage 1 -->
    <_>
      <maxWeakCount>4</maxWeakCount>
      <stageThreshold>-1.5931056737899780e+00</stageThreshold>
      <weakClassifiers>
        <_>
          <internalNodes>
            0 -1 37 5.5314570665359497e-02</internalNodes>
          <leafValues>
            -8.4986597299575806e-01 8.6698913574218750e-01</leafValues></_>
        <_>
          <internalNodes>
            0 -1 32 1.5690285712480545e-02</internalNodes>
          <leafValues>
            -8.0461663007736206e-01 7.8766524791717529e-01</leafValues></_>
        <_>
          <internalNodes>
            0 -1 95 3.1455345451831818e-02</internalNodes>
          <leafValues>
            -6.6512542963027954e-01 6.7253512144088745e-01</leafValues></_>
        <_>
          <internalNodes>
            0 -1 107 2.8304878622293472e-02</internalNodes>
          <leafValues>
            -4.8278069496154785e-01 7.2650229930877686e-01</leafValues></_></weakClassifiers></_>
    <!-- stage 2 -->
    <_>
      <maxWeakCount>5</maxWeakCount>
      <stageThreshold>-1.4949668645858765e+00</stageThreshold>
      <weakClassifiers>
        <_>
          <internalNodes>
            0 -1 96 1.3700878247618675e-02</internalNodes>
          <leafValues>
            -7.9329609870910645e-01 8.1235152482986450e-01</leafValues></_>
        <_>
          <internalNodes>
            0 -1 61 4.2661339044570923e-02</internalNodes>
          <leafValues>
            -5.5231195688247681e-01 8.5933887958526611e-01</leafValues></_>
        <_>
          <internalNodes>
            0 -1 35 4.0498647838830948e-02</internalNodes>
          <leafValues>
            -6.0767763853073120e-01 6.2172663211822510e-01</leafValues></_>
        <_>
          <internalNodes>
            0 -1 97 -2.7759964577853680e-03</internalNodes>
          <leafValues>
            8.6600220203399658e-01 -3.7129509449005127e-01</leafValues></_>
        <_>
          <internalNodes>
            0 -1 129 1.0229340754449368e-02</internalNodes>
          <leafValues>
            -3.9979040622711182e-01 8.4718370437622070e-01</leafValues></_></weakClassifiers></_>
    <!-- stage 3 -->
    <_>
      <maxWeakCount>6</maxWeakCount>
      <stageThreshold>-1.2185207605361938e+00</stageThreshold>
      <weakClassifiers>
        <_>
          <internalNodes>
            0 -1 31 5.9353902935981750e-02</internalNodes>
          <leafValues>
            -7.0588237047195435e-01 7.4418604373931885e-01</leafValues></_>
        <_>
          <internalNodes>
            0 -1 99 2.3130908608436584e-02</internalNodes>
          <leafValues>
            -6.4214283227920532e-01 6.9885557889938354e-01</leafValues></_>
        <_>
          <internalNodes>
            0 -1 58 -3.2860748469829559e-02</internalNodes>
          <leafValues>
            6.5287280082702637e-01 -5.2183157205581665e-01</leafValues></_>
        <_>
          <internalNodes>
            0 -1 93 -1.0601053014397621e-02</internalNodes>
          <leafValues>
            8.1153482198715210e-01 -3.8881206512451172e-01</leafValues></_>
        <_>
          <internalNodes>
            0 -1 77 -2.1773071959614754e-02</internalNodes>
          <leafValues>
            7.8889912366867065e-01 -4.6468010544776917e-01</leafValues></_>
        <_>
          <internalNodes>
            0 -1 104 -1.2537425209302455e-04</internalNodes>
          <leafValues>
            -8.7022310495376587e-01 4.2373391985893250e-01</leafValues></_></weakClassifiers></_>
    <!-- stage 4 -->
    <_>
      <maxWeakCount>9</maxWeakCount>
      <stageThreshold>-1.7181640863418579e+00</stageThreshold>
      <weakClassifiers>
        <_>
          <internalNodes>
            0 -1 38 3.2655954360961914e-02</internalNodes>
          <leafValues>
            -4.8543688654899597e-01 7.6142132282257080e-01</leafValues></_>
        <_>
          <internalNodes>
            0 -1 64 9.4317048788070679e-03</internalNodes>
          <leafValues>
            -6.9740062952041626e-01 6.0389691591262817e-01</leafValues></_>
        <_>
          <internalNodes>
            0 -1 40 1.4987457543611526e-02</internalNodes>
          <leafValues>
            -8.1134039163589478e-01 3.9197051525115967e-01</leafValues></_>
        <_>
          <internalNodes>
            0 -1 34 2.9195215553045273e-02</internalNodes>
          <leafValues>
            3.0142074823379517e-01 -9.6488428115844727e-01</leafValues></_>
        <_>
          <internalNodes>
            0 -1 101 5.7494221255183220e-03</internalNodes>
          <leafValues>
            -5.0846493244171143e-01 6.6207766532897949e-01</leafValues></_>
        <_>
          <internalNodes>
            0 -1 129 8.8515467941761017e-03</internalNodes>
          <leafValues>
            -3.6643198132514954e-01 7.5458073616027832e-01</leafValues></_>
        <_>
          <internalNodes>
            0 -1 112 -4.6340543776750565e-03</internalNodes>
          <leafValues>
            8.3704578876495361e-01 -3.8917437195777893e-01</leafValues></_>
        <_>
          <internalNodes>
            0 -1 123 2.5489311665296555e-03</internalNodes>
          <leafValues>
            -3.5400810837745667e-01 7.6188391447067261e-01</leafValues></_>
        <_>
          <internalNodes>
            0 -1 42 -3.3642090857028961e-02</internalNodes>
          <leafValues>
            -9.2982721328735352e-01 3.8936159014701843e-01</leafValues></_></weakClassifiers></_>
    <!-- stage 5 -->
    <_>
      <maxWeakCount>8</maxWeakCount>
      <stageThreshold>-9.5312052965164185e-01</stageThreshold>
      <weakClassifiers>
        <_>
          <internalNodes>
            0 -1 82 -1.6809174790978432e-02</internalNodes>
          <leafValues>
            7.2119814157485962e-01 -6.8072289228439331e-01</leafValues></_>
        <_>
          <internalNodes>
            0 -1 74 -1.8489779904484749e-02</internalNodes>
          <leafValues>
            6.2156212329864502e-01 -5.9043991565704346e-01</leafValues></_>
        <_>
          <internalNodes>
            0 -1 6 2.8495736420154572e-02</internalNodes>
          <leafValues>
            -4.4751855731010437e-01 6.2748545408248901e-01</leafValues></_>
        <_>
          <internalNodes>
            0 -1 5 5.0143729895353317e-02</internalNodes>
          <leafValues>
            3.0615067481994629e-01 -8.4064751863479614e-01</leafValues></_>
        <_>
          <internalNodes>
            0 -1 86 5.1985569298267365e-03</internalNodes>
          <leafValues>
            -8.8441127538681030e-01 2.7316522598266602e-01</leafValues></_>
        <_>
          <internalNodes>
            0 -1 93 -1.7002271488308907e-02</internalNodes>
          <leafValues>
            8.7911581993103027e-01 -3.7437823414802551e-01</leafValues></_>
        <_>
          <internalNodes>
            0 -1 132 1.0887609794735909e-02</internalNodes>
          <leafValues>
            -2.9538479447364807e-01 8.7810254096984863e-01</leafValues></_>
        <_>
          <internalNodes>
            0 -1 125 2.6615639217197895e-03</internalNodes>
          <leafValues>
            -3.0851358175277710e-01 8.5600793361663818e-01</leafValues></_></weakClassifiers></_>
    <!-- stage 6 -->
    <_>
      <maxWeakCount>7</maxWeakCount>
      <stageThreshold>-1.5098110437393188e+00</stageThreshold>
      <weakClassifiers>
        <_>
          <internalNodes>
            0 -1 52 -4.8967428505420685e-02</internalNodes>
          <leafValues>
            7.5197887420654297e-01 -3.8461539149284363e-01</leafValues></_>
        <_>
          <internalNodes>
            0 -1 127 1.8417151644825935e-02</internalNodes>
          <leafValues>
            -7.3694473505020142e-01 4.4637444615364075e-01</leafValues></_>
        <_>
          <internalNodes>
            0 -1 126 2.2186443209648132e-02</internalNodes>
          <leafValues>
            -3.1988129019737244e-01 9.0777832269668579e-01</leafValues></_>
        <_>
          <internalNodes>
            0 -1 39 1.0398620739579201e-02</internalNodes>
          <leafValues>
            -7.0616006851196289e-01 3.9619892835617065e-01</leafValues></_>
        <_>
          <internalNodes>
            0 -1 146 -1.5500565990805626e-02</internalNodes>
          <leafValues>
            7.1148902177810669e-01 -4.6003153920173645e-01</leafValues></_>
        <_>
          <internalNodes>
            0 -1 8 -1.2469547986984253e-01</internalNodes>
          <leafValues>
            -8.7139850854873657e-01 3.4781765937805176e-01</leafValues></_>
        <_>
          <internalNodes>
            0 -1 22 4.9097584560513496e-03</internalNodes>
          <leafValues>
            -4.3331485986709595e-01 5.1320374011993408e-01</leafValues></_></weakClassifiers></_>
    <!-- stage 7 -->
    <_>
      <maxWeakCount>9</maxWeakCount>
      <stageThreshold>-1.2636685371398926e+00</stageThreshold>
      <weakClassifiers>
        <_>
          <internalNodes>
            0 -1 14 1.2690284848213196e-01</internalNodes>
          <leafValues>
            -6.5245902538299561e-01 6.6927373409271240e-01</leafValues></_>
        <_>
          <internalNodes>
            0 -1 121 8.2812123000621796e-03</internalNodes>
          <leafValues>
            -5.1779633760452271e-01 5.5284833908081055e-01</leafValues></_>
        <_>
          <internalNodes>
            0 -1 41 -2.9877420514822006e-02</internalNodes>
          <leafValues>
            6.3206624984741211e-01 -4.1141539812088013e-01</leafValues></_>
        <_>
          <internalNodes>
            0 -1 29 -1.7733186483383179e-02</internalNodes>
          <leafValues>
            8.6359149217605591e-01 -2.9356992244720459e-01</leafValues></_>
        <_>
          <internalNodes>
            0 -1 76 -2.1218582987785339e-02</internalNodes>
          <leafValues>
            6.5302813053131104e-01 -2.8633144497871399e-01</leafValues></_>
        <_>
          <internalNodes>
            0 -1 89 -2.9723938554525375e-02</internalNodes>
          <leafValues>
            7.4232649803161621e-01 -3.2096570730209351e-01</leafValues></_>
        <_>
          <internalNodes>
            0 -1 92 5.2423817105591297e-03</internalNodes>
          <leafValues>
            -2.4438020586967468e-01 8.6907142400741577e-01</leafValues></_>
        <_>
          <internalNodes>
            0 -1 140 7.5038652867078781e-03</internalNodes>
          <leafValues>
            -2.6236858963966370e-01 7.1733385324478149e-01</leafValues></_>
        <_>
          <internalNodes>
            0 -1 56 -2.0519057288765907e-02</internalNodes>
          <leafValues>
            7.4078577756881714e-01 -2.7703371644020081e-01</leafValues></_></weakClassifiers></_>
    <!-- stage 8 -->
    <_>
      <maxWeakCount>11</maxWeakCount>
      <stageThreshold>-1.1468062400817871e+00</stageThreshold>
      <weakClassifiers>
        <_>
          <internalNodes>
            0 -1 100 7.3083820752799511e-03</internalNodes>
          <leafValues>
            -6.7547172307968140e-01 6.1925131082534790e-01</leafValues></_>
        <_>
          <internalNodes>
            0 -1 162 -2.0129840821027756e-02</internalNodes>
          <leafValues>
            8.9881718158721924e-01 -2.6995173096656799e-01</leafValues></_>
        <_>
          <internalNodes>
            0 -1 4 2.5890782475471497e-02</internalNodes>
          <leafValues>
            -3.0553323030471802e-01 6.2605071067810059e-01</leafValues></_>
        <_>
          <internalNodes>
            0 -1 30 -3.0066989362239838e-02</internalNodes>
          <leafValues>
            7.4038875102996826e-01 -3.5144904255867004e-01</leafValues></_>
        <_>
          <internalNodes>
            0 -1 120 7.2933472692966461e-03</internalNodes>
          <leafValues>
            -4.0765857696533203e-01 5.0605243444442749e-01</leafValues></_>
        <_>
          <internalNodes>
            0 -1 35 4.3109692633152008e-02</internalNodes>
          <leafValues>
            -6.1544042825698853e-01 4.0213996171951294e-01</leafValues></_>
        <_>
          <internalNodes>
            0 -1 164 -8.0628728028386831e-04</internalNodes>
          <leafValues>
            -7.4294173717498779e-01 2.5993347167968750e-01</leafValues></_>
        <_>
          <internalNodes>
            0 -1 98 -3.3354829065501690e-03</internalNodes>
          <leafValues>
            6.0657393932342529e-01 -3.6175271868705750e-01</leafValues></_>
        <_>
          <internalNodes>
            0 -1 26 1.2170262634754181e-02</internalNodes>
          <leafValues>
            -2.6572611927986145e-01 7.1692597866058350e-01</leafValues></_>
        <_>
          <internalNodes>
            0 -1 68 -4.9431324005126953e-03</internalNodes>
          <leafValues>
            7.5161933898925781e-01 -2.7981984615325928e-01</leafValues></_>
        <_>
          <internalNodes>
            0 -1 165 4.3492132681421936e-04</internalNodes>
          <leafValues>
            2.8076872229576111e-01 -8.3240091800689697e-01</leafValues></_></weakClassifiers></_>
    <!-- stage 9 -->
    <_>
      <maxWeakCount>11</maxWeakCount>
      <stageThreshold>-1.1195974349975586e+00</stageThreshold>
      <weakClassifiers>
        <_>
          <internalNodes>
            0 -1 28 -2.4188417010009289e-03</internalNodes>
          <leafValues>
            5.9006214141845703e-01 -7.2649574279785156e-01</leafValues></_>
        <_>
          <internalNodes>
            0 -1 131 7.7928216196596622e-03</internalNodes>
          <leafValues>
            -3.7837395071983337e-01 7.1322989463806152e-01</leafValues></_>
        <_>
          <internalNodes>
            0 -1 116 5.5082552134990692e-03</internalNodes>
          <leafValues>
            -2.3905283212661743e-01 8.1044441461563110e-01</leafValues></_>
        <_>
          <internalNodes>
            0 -1 124 7.4633033946156502e-03</internalNodes>
          <leafValues>
            -3.1002607941627502e-01 7.0146048069000244e-01</leafValues></_>
        <_>
          <internalNodes>
            0 -1 143 5.2927150391042233e-03</internalNodes>
          <leafValues>
            -3.3736974000930786e-01 7.0692920684814453e-01</leafValues></_>
        <_>
          <internalNodes>
            0 -1 66 1.9963691011071205e-04</internalNodes>
          <leafValues>
            -8.7542611360549927e-01 2.8422150015830994e-01</leafValues></_>
        <_>
          <internalNodes>
            0 -1 160 4.3974025174975395e-03</internalNodes>
          <leafValues>
            2.3944863677024841e-01 -7.8894156217575073e-01</leafValues></_>
        <_>
          <internalNodes>
            0 -1 73 8.5415937064681202e-05</internalNodes>
          <leafValues>
            -7.2286647558212280e-01 2.5734719634056091e-01</leafValues></_>
        <_>
          <internalNodes>
            0 -1 105 1.6110407159430906e-05</internalNodes>
          <leafValues>
            -8.1447917222976685e-01 2.4687735736370087e-01</leafValues></_>
        <_>
          <internalNodes>
            0 -1 157 -2.2268849425017834e-03</internalNodes>
          <leafValues>
            -7.9283124208450317e-01 2.4376159906387329e-01</leafValues></_>
        <_>
          <internalNodes>
            0 -1 91 2.8819320723414421e-03</internalNodes>
          <leafValues>
            -3.5006538033485413e-01 7.8319042921066284e-01</leafValues></_></weakClassifiers></_>
    <!-- stage 10 -->
    <_>
      <maxWeakCount>8</maxWeakCount>
      <stageThreshold>-1.0744259357452393e+00</stageThreshold>
      <weakClassifiers>
        <_>
          <internalNodes>
            0 -1 122 1.5242472290992737e-02</internalNodes>
          <leafValues>
            -7.2995781898498535e-01 5.9501558542251587e-01</leafValues></_>
        <_>
          <internalNodes>
            0 -1 51 8.6352497339248657e-02</internalNodes>
          <leafValues>
            -4.6557068824768066e-01 6.8914300203323364e-01</leafValues></_>
        <_>
          <internalNodes>
            0 -1 151 -2.3270849138498306e-02</internalNodes>
          <leafValues>
            8.1989413499832153e-01 -3.1045073270797729e-01</leafValues></_>
        <_>
          <internalNodes>
            0 -1 83 1.5696553513407707e-02</internalNodes>
          <leafValues>
            3.2707569003105164e-01 -8.1458157300949097e-01</leafValues></_>
        <_>
          <internalNodes>
            0 -1 111 2.4037118419073522e-04</internalNodes>
          <leafValues>
            -5.4483026266098022e-01 3.5604971647262573e-01</leafValues></_>
        <_>
          <internalNodes>
            0 -1 79 4.3771793134510517e-03</internalNodes>
          <leafValues>
            -3.3865860104560852e-01 7.6130884885787964e-01</leafValues></_>
        <_>
          <internalNodes>
            0 -1 11 -2.6132624596357346e-02</internalNodes>
          <leafValues>
            7.3778796195983887e-01 -2.4295248091220856e-01</leafValues></_>
        <_>
          <internalNodes>
            0 -1 163 -1.4511610788758844e-04</internalNodes>
          <leafValues>
            -6.6575503349304199e-01 3.3003896474838257e-01</leafValues></_></weakClassifiers></_>
    <!-- stage 11 -->
    <_>
      <maxWeakCount>9</maxWeakCount>
      <stageThreshold>-1.2094758749008179e+00</stageThreshold>
      <weakClassifiers>
        <_>
          <internalNodes>
            0 -1 1 -3.4758698195219040e-02</internalNodes>
          <leafValues>
            6.2774568796157837e-01 -4.2686566710472107e-01</leafValues></_>
        <_>
          <internalNodes>
            0 -1 148 -1.0352665558457375e-02</internalNodes>
          <leafValues>
            8.0030405521392822e-01 -2.4739368259906769e-01</leafValues></_>
        <_>
          <internalNodes>
            0 -1 59 3.1806897372007370e-02</internalNodes>
          <leafValues>
            -6.2375771999359131e-01 3.9651039242744446e-01</leafValues></_>
        <_>
          <internalNodes>
            0 -1 87 -1.5401477925479412e-02</internalNodes>
          <leafValues>
            7.9027241468429565e-01 -2.6772546768188477e-01</leafValues></_>
        <_>
          <internalNodes>
            0 -1 70 -1.0542040690779686e-02</internalNodes>
          <leafValues>
            8.0610859394073486e-01 -2.6899451017379761e-01</leafValues></_>
        <_>
          <internalNodes>
            0 -1 44 8.4670931100845337e-03</internalNodes>
          <leafValues>
            -1.7513251304626465e-01 8.8559830188751221e-01</leafValues></_>
        <_>
          <internalNodes>
            0 -1 60 -1.7244216054677963e-02</internalNodes>
          <leafValues>
            8.3532476425170898e-01 -2.1002255380153656e-01</leafValues></_>
        <_>
          <internalNodes>
            0 -1 19 4.1794613003730774e-02</internalNodes>
          <leafValues>
            2.7616351842880249e-01 -9.2416584491729736e-01</leafValues></_>
        <_>
          <internalNodes>
            0 -1 141 -1.1187829077243805e-02</internalNodes>
          <leafValues>
            7.6220840215682983e-01 -3.1344506144523621e-01</leafValues></_></weakClassifiers></_>
    <!-- stage 12 -->
    <_>
      <maxWeakCount>10</maxWeakCount>
      <stageThreshold>-8.6701071262359619e-01</stageThreshold>
      <weakClassifiers>
        <_>
          <internalNodes>
            0 -1 155 3.9565131068229675e-02</internalNodes>
          <leafValues>
            -1.5210355818271637e-01 8.4879726171493530e-01</leafValues></_>
        <_>
          <internalNodes>
            0 -1 81 1.3206797302700579e-04</internalNodes>
          <leafValues>
            -6.1113613843917847e-01 4.6893137693405151e-01</leafValues></_>
        <_>
          <internalNodes>
            0 -1 150 -3.1029354780912399e-02</internalNodes>
          <leafValues>
            8.7585997581481934e-01 -2.3471078276634216e-01</leafValues></_>
        <_>
          <internalNodes>
            0 -1 85 -3.3419162034988403e-02</internalNodes>
          <leafValues>
            7.3816257715225220e-01 -2.7889010310173035e-01</leafValues></_>
        <_>
          <internalNodes>
            0 -1 133 7.0679280906915665e-03</internalNodes>
          <leafValues>
            -1.7709453403949738e-01 8.5806697607040405e-01</leafValues></_>
        <_>
          <internalNodes>
            0 -1 7 -2.3047421127557755e-02</internalNodes>
          <leafValues>
            7.5758892297744751e-01 -2.6816838979721069e-01</leafValues></_>
        <_>
          <internalNodes>
            0 -1 103 6.3952198252081871e-04</internalNodes>
          <leafValues>
            -8.2658797502517700e-01 2.7851113677024841e-01</leafValues></_>
        <_>
          <internalNodes>
            0 -1 62 2.2705599665641785e-02</internalNodes>
          <leafValues>
            -3.5036289691925049e-01 6.4192944765090942e-01</leafValues></_>
        <_>
          <internalNodes>
            0 -1 108 1.7201389709953219e-05</internalNodes>
          <leafValues>
            -6.8623304367065430e-01 3.3380988240242004e-01</leafValues></_>
        <_>
          <internalNodes>
            0 -1 50 -4.6948287636041641e-03</internalNodes>
          <leafValues>
            5.9313464164733887e-01 -3.3829051256179810e-01</leafValues></_></weakClassifiers></_>
    <!-- stage 13 -->
    <_>
      <maxWeakCount>10</maxWeakCount>
      <stageThreshold>-1.1003756523132324e+00</stageThreshold>
      <weakClassifiers>
        <_>
          <internalNodes>
            0 -1 119 -1.8936171545647085e-04</internalNodes>
          <leafValues>
            -6.7871487140655518e-01 5.9831756353378296e-01</leafValues></_>
        <_>
          <internalNodes>
            0 -1 18 -3.3984482288360596e-02</internalNodes>
          <leafValues>
            6.9857418537139893e-01 -3.6216256022453308e-01</leafValues></_>
        <_>
          <internalNodes>
            0 -1 71 1.1856757104396820e-02</internalNodes>
          <leafValues>
            -2.4008563160896301e-01 7.8002065420150757e-01</leafValues></_>
        <_>
          <internalNodes>
            0 -1 109 4.0883169276639819e-04</internalNodes>
          <leafValues>
            -7.4941515922546387e-01 3.1086620688438416e-01</leafValues></_>
        <_>
          <internalNodes>
            0 -1 65 -4.3547686189413071e-02</internalNodes>
          <leafValues>
            -9.3489998579025269e-01 1.7223644256591797e-01</leafValues></_>
        <_>
          <internalNodes>
            0 -1 20 -6.1046262271702290e-03</internalNodes>
          <leafValues>
            2.8307998180389404e-01 -8.5977387428283691e-01</leafValues></_>
        <_>
          <internalNodes>
            0 -1 55 -2.2201914340257645e-02</internalNodes>
          <leafValues>
            6.8819659948348999e-01 -3.2478719949722290e-01</leafValues></_>
        <_>
          <internalNodes>
            0 -1 3 -1.6153018921613693e-02</internalNodes>
          <leafValues>
            -7.0729708671569824e-01 2.6451906561851501e-01</leafValues></_>
        <_>
          <internalNodes>
            0 -1 49 -2.0433589816093445e-02</internalNodes>
          <leafValues>
            -8.8401436805725098e-01 1.9918709993362427e-01</leafValues></_>
        <_>
          <internalNodes>
            0 -1 156 -1.8949940567836165e-04</internalNodes>
          <leafValues>
            -6.3654488325119019e-01 2.4730198085308075e-01</leafValues></_></weakClassifiers></_>
    <!-- stage 14 -->
    <_>
      <maxWeakCount>9</maxWeakCount>
      <stageThreshold>-1.1021391153335571e+00</stageThreshold>
      <weakClassifiers>
        <_>
          <internalNodes>
            0 -1 110 -1.4665990602225065e-04</internalNodes>
          <leafValues>
            -9.2452830076217651e-01 5.2545630931854248e-01</leafValues></_>
        <_>
          <internalNodes>
            0 -1 13 4.3234869837760925e-02</internalNodes>
          <leafValues>
            -5.3989732265472412e-01 5.1865154504776001e-01</leafValues></_>
        <_>
          <internalNodes>
            0 -1 129 7.4894265271723270e-03</internalNodes>
          <leafValues>
            -3.6516183614730835e-01 5.8824157714843750e-01</leafValues></_>
        <_>
          <internalNodes>
            0 -1 102 1.6548407729715109e-03</internalNodes>
          <leafValues>
            -4.7977125644683838e-01 4.4384813308715820e-01</leafValues></_>
        <_>
          <internalNodes>
            0 -1 134 -3.0252572614699602e-03</internalNodes>
          <leafValues>
            7.3948252201080322e-01 -2.6835951209068298e-01</leafValues></_>
        <_>
          <internalNodes>
            0 -1 67 1.0842952877283096e-02</internalNodes>
          <leafValues>
            -2.8090292215347290e-01 6.5782338380813599e-01</leafValues></_>
        <_>
          <internalNodes>
            0 -1 78 3.8535580039024353e-02</internalNodes>
          <leafValues>
            -3.2247573137283325e-01 6.9701123237609863e-01</leafValues></_>
        <_>
          <internalNodes>
            0 -1 118 3.3171888208016753e-04</internalNodes>
          <leafValues>
            -6.0055226087570190e-01 3.5328900814056396e-01</leafValues></_>
        <_>
          <internalNodes>
            0 -1 153 1.8209509551525116e-02</internalNodes>
          <leafValues>
            -3.4072205424308777e-01 6.0911703109741211e-01</leafValues></_></weakClassifiers></_>
    <!-- stage 15 -->
    <_>
      <maxWeakCount>10</maxWeakCount>
      <stageThreshold>-9.9251151084899902e-01</stageThreshold>
      <weakClassifiers>
        <_>
          <internalNodes>
            0 -1 51 8.6377449333667755e-02</internalNodes>
          <leafValues>
            -1.8045112490653992e-01 7.4251496791839600e-01</leafValues></_>
        <_>
          <internalNodes>
            0 -1 137 2.2265493869781494e-02</internalNodes>
          <leafValues>
            -2.0438881218433380e-01 8.5882306098937988e-01</leafValues></_>
        <_>
          <internalNodes>
            0 -1 17 -1.9759699702262878e-02</internalNodes>
          <leafValues>
            6.9265025854110718e-01 -2.6837316155433655e-01</leafValues></_>
        <_>
          <internalNodes>
            0 -1 97 -3.1225173734128475e-03</internalNodes>
          <leafValues>
            6.3563567399978638e-01 -3.3489814400672913e-01</leafValues></_>
        <_>
          <internalNodes>
            0 -1 21 9.1315470635890961e-03</internalNodes>
          <leafValues>
            -3.7320885062217712e-01 5.2144360542297363e-01</leafValues></_>
        <_>
          <internalNodes>
            0 -1 106 1.7036080360412598e-02</internalNodes>
          <leafValues>
            -3.0838409066200256e-01 6.3680624961853027e-01</leafValues></_>
        <_>
          <internalNodes>
            0 -1 24 -2.4242142215371132e-02</internalNodes>
          <leafValues>
            -9.8943662643432617e-01 2.2254297137260437e-01</leafValues></_>
        <_>
          <internalNodes>
            0 -1 113 -1.1730471160262823e-03</internalNodes>
          <leafValues>
            5.0305545330047607e-01 -3.9649236202239990e-01</leafValues></_>
        <_>
          <internalNodes>
            0 -1 115 2.3972147610038519e-03</internalNodes>
          <leafValues>
            -3.0094337463378906e-01 7.0136541128158569e-01</leafValues></_>
        <_>
          <internalNodes>
            0 -1 2 9.9617009982466698e-04</internalNodes>
          <leafValues>
            2.9873642325401306e-01 -7.1310085058212280e-01</leafValues></_></weakClassifiers></_>
    <!-- stage 16 -->
    <_>
      <maxWeakCount>13</maxWeakCount>
      <stageThreshold>-1.5410293340682983e+00</stageThreshold>
      <weakClassifiers>
        <_>
          <internalNodes>
            0 -1 145 1.7326750821666792e-05</internalNodes>
          <leafValues>
            -7.8698223829269409e-01 5.1697379350662231e-01</leafValues></_>
        <_>
          <internalNodes>
            0 -1 23 -6.4884275197982788e-03</internalNodes>
          <leafValues>
            5.1409369707107544e-01 -4.6071448922157288e-01</leafValues></_>
        <_>
          <internalNodes>
            0 -1 47 3.7820294499397278e-02</internalNodes>
          <leafValues>
            2.4028055369853973e-01 -9.8428231477737427e-01</leafValues></_>
        <_>
          <internalNodes>
            0 -1 149 -1.9930213689804077e-02</internalNodes>
          <leafValues>
            6.3931620121002197e-01 -3.7187483906745911e-01</leafValues></_>
        <_>
          <internalNodes>
            0 -1 136 5.4167941212654114e-02</internalNodes>
          <leafValues>
            2.8681316971778870e-01 -7.0026946067810059e-01</leafValues></_>
        <_>
          <internalNodes>
            0 -1 16 1.0538755450397730e-03</internalNodes>
          <leafValues>
            2.7213072776794434e-01 -6.9454449415206909e-01</leafValues></_>
        <_>
          <internalNodes>
            0 -1 152 -9.3591604381799698e-03</internalNodes>
          <leafValues>
            5.8833950757980347e-01 -3.2776197791099548e-01</leafValues></_>
        <_>
          <internalNodes>
            0 -1 117 9.0890983119606972e-04</internalNodes>
          <leafValues>
            -5.5773508548736572e-01 3.7296208739280701e-01</leafValues></_>
        <_>
          <internalNodes>
            0 -1 54 -1.3541159220039845e-02</internalNodes>
          <leafValues>
            7.5292325019836426e-01 -2.8123348951339722e-01</leafValues></_>
        <_>
          <internalNodes>
            0 -1 43 6.5039382316172123e-03</internalNodes>
          <leafValues>
            -2.1222576498985291e-01 8.5123229026794434e-01</leafValues></_>
        <_>
          <internalNodes>
            0 -1 25 5.7292282581329346e-03</internalNodes>
          <leafValues>
            -2.4338175356388092e-01 6.2932217121124268e-01</leafValues></_>
        <_>
          <internalNodes>
            0 -1 46 -1.9211754202842712e-02</internalNodes>
          <leafValues>
            -8.6746096611022949e-01 2.0271496474742889e-01</leafValues></_>
        <_>
          <internalNodes>
            0 -1 48 2.5564883835613728e-03</internalNodes>
          <leafValues>
            -3.2849797606468201e-01 6.5109378099441528e-01</leafValues></_></weakClassifiers></_>
    <!-- stage 17 -->
    <_>
      <maxWeakCount>11</maxWeakCount>
      <stageThreshold>-1.5555704832077026e+00</stageThreshold>
      <weakClassifiers>
        <_>
          <internalNodes>
            0 -1 27 2.3764970246702433e-03</internalNodes>
          <leafValues>
            -6.1752986907958984e-01 5.8482611179351807e-01</leafValues></_>
        <_>
          <internalNodes>
            0 -1 158 2.2652667015790939e-02</internalNodes>
          <leafValues>
            -2.4137516319751740e-01 8.8031494617462158e-01</leafValues></_>
        <_>
          <internalNodes>
            0 -1 45 2.6028587017208338e-03</internalNodes>
          <leafValues>
            -7.6327335834503174e-01 2.8796005249023438e-01</leafValues></_>
        <_>
          <internalNodes>
            0 -1 166 2.5360349565744400e-02</internalNodes>
          <leafValues>
            -2.9055631160736084e-01 7.5690704584121704e-01</leafValues></_>
        <_>
          <internalNodes>
            0 -1 0 1.5978887677192688e-03</internalNodes>
          <leafValues>
            2.9730534553527832e-01 -7.4557125568389893e-01</leafValues></_>
        <_>
          <internalNodes>
            0 -1 10 -1.3533611781895161e-03</internalNodes>
          <leafValues>
            -6.9503545761108398e-01 2.4759486317634583e-01</leafValues></_>
        <_>
          <internalNodes>
            0 -1 69 -8.7237227708101273e-03</internalNodes>
          <leafValues>
            -8.8778096437454224e-01 1.8708710372447968e-01</leafValues></_>
        <_>
          <internalNodes>
            0 -1 57 1.9791074097156525e-02</internalNodes>
          <leafValues>
            -2.7045860886573792e-01 8.1664597988128662e-01</leafValues></_>
        <_>
          <internalNodes>
            0 -1 75 -2.2199290106073022e-04</internalNodes>
          <leafValues>
            -8.0313926935195923e-01 2.9027548432350159e-01</leafValues></_>
        <_>
          <internalNodes>
            0 -1 53 -3.3908717334270477e-02</internalNodes>
          <leafValues>
            6.1098510026931763e-01 -3.6117714643478394e-01</leafValues></_>
        <_>
          <internalNodes>
            0 -1 154 -1.4030033722519875e-02</internalNodes>
          <leafValues>
            6.5344774723052979e-01 -2.9318857192993164e-01</leafValues></_></weakClassifiers></_>
    <!-- stage 18 -->
    <_>
      <maxWeakCount>11</maxWeakCount>
      <stageThreshold>-1.1284395456314087e+00</stageThreshold>
      <weakClassifiers>
        <_>
          <internalNodes>
            0 -1 84 -1.3227947056293488e-04</internalNodes>
          <leafValues>
            -6.7889910936355591e-01 5.5804479122161865e-01</leafValues></_>
        <_>
          <internalNodes>
            0 -1 138 1.6821533441543579e-02</internalNodes>
          <leafValues>
            -2.9493349790573120e-01 7.8358626365661621e-01</leafValues></_>
        <_>
          <internalNodes>
            0 -1 139 2.2058665752410889e-02</internalNodes>
          <leafValues>
            -1.6421183943748474e-01 9.6539086103439331e-01</leafValues></_>
        <_>
          <internalNodes>
            0 -1 33 4.5751528814435005e-03</internalNodes>
          <leafValues>
            -7.8709310293197632e-01 2.8828015923500061e-01</leafValues></_>
        <_>
          <internalNodes>
            0 -1 63 4.0282486006617546e-03</internalNodes>
          <leafValues>
            -4.6798625588417053e-01 3.8096693158149719e-01</leafValues></_>
        <_>
          <internalNodes>
            0 -1 142 -1.4158001169562340e-02</internalNodes>
          <leafValues>
            7.9799646139144897e-01 -2.5640261173248291e-01</leafValues></_>
        <_>
          <internalNodes>
            0 -1 72 1.1582296341657639e-02</internalNodes>
          <leafValues>
            -2.2102849185466766e-01 7.7173984050750732e-01</leafValues></_>
        <_>
          <internalNodes>
            0 -1 147 -1.1957419104874134e-02</internalNodes>
          <leafValues>
            7.0569062232971191e-01 -2.3753826320171356e-01</leafValues></_>
        <_>
          <internalNodes>
            0 -1 114 -1.1554240481927991e-03</internalNodes>
          <leafValues>
            7.4641042947769165e-01 -2.0052029192447662e-01</leafValues></_>
        <_>
          <internalNodes>
            0 -1 94 -2.9871969018131495e-03</internalNodes>
          <leafValues>
            6.0635507106781006e-01 -2.8653773665428162e-01</leafValues></_>
        <_>
          <internalNodes>
            0 -1 128 5.8638066053390503e-02</internalNodes>
          <leafValues>
            2.3699949681758881e-01 -8.3698856830596924e-01</leafValues></_></weakClassifiers></_>
    <!-- stage 19 -->
    <_>
      <maxWeakCount>11</maxWeakCount>
      <stageThreshold>-8.0374652147293091e-01</stageThreshold>
      <weakClassifiers>
        <_>
          <internalNodes>
            0 -1 23 -1.0230957530438900e-02</internalNodes>
          <leafValues>
            7.9119086265563965e-01 -1.4480409026145935e-01</leafValues></_>
        <_>
          <internalNodes>
            0 -1 135 1.5214504674077034e-03</internalNodes>
          <leafValues>
            -7.9496687650680542e-01 3.3812186121940613e-01</leafValues></_>
        <_>
          <internalNodes>
            0 -1 130 2.3790219798684120e-02</internalNodes>
          <leafValues>
            -2.9110598564147949e-01 7.6251065731048584e-01</leafValues></_>
        <_>
          <internalNodes>
            0 -1 144 1.4494858682155609e-02</internalNodes>
          <leafValues>
            -1.8519167602062225e-01 9.0709584951400757e-01</leafValues></_>
        <_>
          <internalNodes>
            0 -1 9 -2.9306714423000813e-03</internalNodes>
          <leafValues>
            -7.3099809885025024e-01 2.7278414368629456e-01</leafValues></_>
        <_>
          <internalNodes>
            0 -1 36 2.1868618205189705e-03</internalNodes>
          <leafValues>
            -2.4641795456409454e-01 7.2752302885055542e-01</leafValues></_>
        <_>
          <internalNodes>
            0 -1 159 1.9626156426966190e-03</internalNodes>
          <leafValues>
            2.7345579862594604e-01 -6.9570618867874146e-01</leafValues></_>
        <_>
          <internalNodes>
            0 -1 161 5.5396938696503639e-03</internalNodes>
          <leafValues>
            2.1996901929378510e-01 -7.9733389616012573e-01</leafValues></_>
        <_>
          <internalNodes>
            0 -1 12 -4.7911214642226696e-03</internalNodes>
          <leafValues>
            7.2108215093612671e-01 -3.0640608072280884e-01</leafValues></_>
        <_>
          <internalNodes>
            0 -1 90 1.6491212882101536e-03</internalNodes>
          <leafValues>
            -2.0575907826423645e-01 7.5755453109741211e-01</leafValues></_>
        <_>
          <internalNodes>
            0 -1 88 -2.7019223198294640e-03</internalNodes>
          <leafValues>
            6.0469633340835571e-01 -3.5341462492942810e-01</leafValues></_></weakClassifiers></_></stages>
  <features>
    <_>
      <rects>
        <_>
          0 1 8 2 -1.</_>
        <_>
          0 1 4 1 2.</_>
        <_>
          4 2 4 1 2.</_></rects>
      <tilted>0</tilted></_>
    <_>
      <rects>
        <_>
          0 17 16 6 -1.</_>
        <_>
          0 17 8 3 2.</_>
        <_>
          8 20 8 3 2.</_></rects>
      <tilted>0</tilted></_>
    <_>
      <rects>
        <_>
          1 5 4 2 -1.</_>
        <_>
          1 6 4 1 2.</_></rects>
      <tilted>0</tilted></_>
    <_>
      <rects>
        <_>
          1 6 22 2 -1.</_>
        <_>
          12 6 11 2 2.</_></rects>
      <tilted>0</tilted></_>
    <_>
      <rects>
        <_>
          2 2 14 4 -1.</_>
        <_>
          2 2 7 2 2.</_>
        <_>
          9 4 7 2 2.</_></rects>
      <tilted>0</tilted></_>
    <_>
      <rects>
        <_>
          3 7 13 14 -1.</_>
        <_>
          3 14 13 7 2.</_></rects>
      <tilted>0</tilted></_>
    <_>
      <rects>
        <_>
          4 1 10 6 -1.</_>
        <_>
          4 1 5 3 2.</_>
        <_>
          9 4 5 3 2.</_></rects>
      <tilted>0</tilted></_>
    <_>
      <rects>
        <_>
          4 3 16 2 -1.</_>
        <_>
          8 3 8 2 2.</_></rects>
      <tilted>0</tilted></_>
    <_>
      <rects>
        <_>
          4 5 12 15 -1.</_>
        <_>
          4 10 12 5 3.</_></rects>
      <tilted>0</tilted></_>
    <_>
      <rects>
        <_>
          4 18 3 3 -1.</_>
        <_>
          5 19 1 3 3.</_></rects>
      <tilted>1</tilted></_>
    <_>
      <rects>
        <_>
          5 0 2 3 -1.</_>
        <_>
          4 1 2 1 3.</_></rects>
      <tilted>1</tilted></_>
    <_>
      <rects>
        <_>
          5 1 11 8 -1.</_>
        <_>
          5 3 11 4 2.</_></rects>
      <tilted>0</tilted></_>
    <_>
      <rects>
        <_>
          5 11 3 4 -1.</_>
        <_>
          6 11 1 4 3.</_></rects>
      <tilted>0</tilted></_>
    <_>
      <rects>
        <_>
          5 11 8 10 -1.</_>
        <_>
          5 11 4 5 2.</_>
        <_>
          9 16 4 5 2.</_></rects>
      <tilted>0</tilted></_>
    <_>
      <rects>
        <_>
          5 15 15 6 -1.</_>
        <_>
          10 17 5 2 9.</_></rects>
      <tilted>0</tilted></_>
    <_>
      <rects>
        <_>
          5 16 15 4 -1.</_>
        <_>
          10 16 5 4 3.</_></rects>
      <tilted>0</tilted></_>
    <_>
      <rects>
        <_>
          6 0 9 2 -1.</_>
        <_>
          6 1 9 1 2.</_></rects>
      <tilted>0</tilted></_>
    <_>
      <rects>
        <_>
          6 0 10 4 -1.</_>
        <_>
          6 2 10 2 2.</_></rects>
      <tilted>0</tilted></_>
    <_>
      <rects>
        <_>
          6 4 6 10 -1.</_>
        <_>
          6 4 3 5 2.</_>
        <_>
          9 9 3 5 2.</_></rects>
      <tilted>0</tilted></_>
    <_>
      <rects>
        <_>
          6 6 10 14 -1.</_>
        <_>
          6 13 10 7 2.</_></rects>
      <tilted>0</tilted></_>
    <_>
      <rects>
        <_>
          6 6 11 12 -1.</_>
        <_>
          6 10 11 4 3.</_></rects>
      <tilted>0</tilted></_>
    <_>
      <rects>
        <_>
          6 15 9 4 -1.</_>
        <_>
          6 16 9 2 2.</_></rects>
      <tilted>0</tilted></_>
    <_>
      <rects>
        <_>
          7 5 3 14 -1.</_>
        <_>
          8 5 1 14 3.</_></rects>
      <tilted>0</tilted></_>
    <_>
      <rects>
        <_>
          7 8 4 9 -1.</_>
        <_>
          9 8 2 9 2.</_></rects>
      <tilted>0</tilted></_>
    <_>
      <rects>
        <_>
          7 9 9 6 -1.</_>
        <_>
          7 12 9 3 2.</_></rects>
      <tilted>0</tilted></_>
    <_>
      <rects>
        <_>
          7 10 3 5 -1.</_>
        <_>
          8 10 1 5 3.</_></rects>
      <tilted>0</tilted></_>
    <_>
      <rects>
        <_>
          7 13 8 3 -1.</_>
        <_>
          6 14 8 1 3.</_></rects>
      <tilted>1</tilted></_>
    <_>
      <rects>
        <_>
          7 16 12 3 -1.</_>
        <_>
          7 17 12 1 3.</_></rects>
      <tilted>0</tilted></_>
    <_>
      <rects>
        <_>
          7 18 13 2 -1.</_>
        <_>
          7 19 13 1 2.</_></rects>
      <tilted>0</tilted></_>
    <_>
      <rects>
        <_>
          8 0 4 5 -1.</_>
        <_>
          9 1 2 5 2.</_></rects>
      <tilted>1</tilted></_>
    <_>
      <rects>
        <_>
          8 1 8 8 -1.</_>
        <_>
          8 3 8 4 2.</_></rects>
      <tilted>0</tilted></_>
    <_>
      <rects>
        <_>
          8 4 9 6 -1.</_>
        <_>
          11 6 3 2 9.</_></rects>
      <tilted>0</tilted></_>
    <_>
      <rects>
        <_>
          8 4 9 5 -1.</_>
        <_>
          11 4 3 5 3.</_></rects>
      <tilted>0</tilted></_>
    <_>
      <rects>
        <_>
          8 5 8 4 -1.</_>
        <_>
          10 5 4 4 2.</_></rects>
      <tilted>0</tilted></_>
    <_>
      <rects>
        <_>
          8 5 9 14 -1.</_>
        <_>
          8 12 9 7 2.</_></rects>
      <tilted>0</tilted></_>
    <_>
      <rects>
        <_>
          8 8 10 6 -1.</_>
        <_>
          6 10 10 2 3.</_></rects>
      <tilted>1</tilted></_>
    <_>
      <rects>
        <_>
          8 14 3 1 -1.</_>
        <_>
          9 14 1 1 3.</_></rects>
      <tilted>0</tilted></_>
    <_>
      <rects>
        <_>
          8 15 9 6 -1.</_>
        <_>
          11 17 3 2 9.</_></rects>
      <tilted>0</tilted></_>
    <_>
      <rects>
        <_>
          8 15 7 6 -1.</_>
        <_>
          8 17 7 2 3.</_></rects>
      <tilted>0</tilted></_>
    <_>
      <rects>
        <_>
          8 16 8 5 -1.</_>
        <_>
          10 16 4 5 2.</_></rects>
      <tilted>0</tilted></_>
    <_>
      <rects>
        <_>
          8 16 9 5 -1.</_>
        <_>
          11 16 3 5 3.</_></rects>
      <tilted>0</tilted></_>
    <_>
      <rects>
        <_>
          9 0 7 8 -1.</_>
        <_>
          9 2 7 4 2.</_></rects>
      <tilted>0</tilted></_>
    <_>
      <rects>
        <_>
          9 2 6 18 -1.</_>
        <_>
          9 11 6 9 2.</_></rects>
      <tilted>0</tilted></_>
    <_>
      <rects>
        <_>
          9 4 2 3 -1.</_>
        <_>
          9 4 1 3 2.</_></rects>
      <tilted>1</tilted></_>
    <_>
      <rects>
        <_>
          9 4 2 4 -1.</_>
        <_>
          9 4 1 4 2.</_></rects>
      <tilted>1</tilted></_>
    <_>
      <rects>
        <_>
          9 4 6 5 -1.</_>
        <_>
          11 4 2 5 3.</_></rects>
      <tilted>0</tilted></_>
    <_>
      <rects>
        <_>
          9 5 6 13 -1.</_>
        <_>
          12 5 3 13 2.</_></rects>
      <tilted>0</tilted></_>
    <_>
      <rects>
        <_>
          9 7 8 11 -1.</_>
        <_>
          13 7 4 11 2.</_></rects>
      <tilted>0</tilted></_>
    <_>
      <rects>
        <_>
          9 10 3 1 -1.</_>
        <_>
          10 10 1 1 3.</_></rects>
      <tilted>0</tilted></_>
    <_>
      <rects>
        <_>
          9 10 10 6 -1.</_>
        <_>
          9 13 10 3 2.</_></rects>
      <tilted>0</tilted></_>
    <_>
      <rects>
        <_>
          9 14 2 3 -1.</_>
        <_>
          8 15 2 1 3.</_></rects>
      <tilted>1</tilted></_>
    <_>
      <rects>
        <_>
          9 14 6 9 -1.</_>
        <_>
          9 17 6 3 3.</_></rects>
      <tilted>0</tilted></_>
    <_>
      <rects>
        <_>
          9 17 8 6 -1.</_>
        <_>
          9 20 8 3 2.</_></rects>
      <tilted>0</tilted></_>
    <_>
      <rects>
        <_>
          10 0 5 8 -1.</_>
        <_>
          10 2 5 4 2.</_></rects>
      <tilted>0</tilted></_>
    <_>
      <rects>
        <_>
          10 1 3 3 -1.</_>
        <_>
          11 2 1 3 3.</_></rects>
      <tilted>1</tilted></_>
    <_>
      <rects>
        <_>
          10 1 4 4 -1.</_>
        <_>
          11 2 2 4 2.</_></rects>
      <tilted>1</tilted></_>
    <_>
      <rects>
        <_>
          10 1 4 5 -1.</_>
        <_>
          11 2 2 5 2.</_></rects>
      <tilted>1</tilted></_>
    <_>
      <rects>
        <_>
          10 1 4 4 -1.</_>
        <_>
          10 3 4 2 2.</_></rects>
      <tilted>0</tilted></_>
    <_>
      <rects>
        <_>
          10 1 12 6 -1.</_>
        <_>
          10 1 6 3 2.</_>
        <_>
          16 4 6 3 2.</_></rects>
      <tilted>0</tilted></_>
    <_>
      <rects>
        <_>
          10 2 3 9 -1.</_>
        <_>
          11 5 1 3 9.</_></rects>
      <tilted>0</tilted></_>
    <_>
      <rects>
        <_>
          10 2 2 5 -1.</_>
        <_>
          10 2 1 5 2.</_></rects>
      <tilted>1</tilted></_>
    <_>
      <rects>
        <_>
          10 2 4 9 -1.</_>
        <_>
          10 5 4 3 3.</_></rects>
      <tilted>0</tilted></_>
    <_>
      <rects>
        <_>
          10 2 5 6 -1.</_>
        <_>
          10 4 5 2 3.</_></rects>
      <tilted>0</tilted></_>
    <_>
      <rects>
        <_>
          10 3 1 6 -1.</_>
        <_>
          10 5 1 2 3.</_></rects>
      <tilted>0</tilted></_>
    <_>
      <rects>
        <_>
          10 3 6 1 -1.</_>
        <_>
          12 5 2 1 3.</_></rects>
      <tilted>1</tilted></_>
    <_>
      <rects>
        <_>
          10 4 6 14 -1.</_>
        <_>
          10 11 6 7 2.</_></rects>
      <tilted>0</tilted></_>
    <_>
      <rects>
        <_>
          10 5 6 3 -1.</_>
        <_>
          10 6 6 1 3.</_></rects>
      <tilted>0</tilted></_>
    <_>
      <rects>
        <_>
          10 6 8 4 -1.</_>
        <_>
          10 7 8 2 2.</_></rects>
      <tilted>0</tilted></_>
    <_>
      <rects>
        <_>
          10 8 2 5 -1.</_>
        <_>
          11 8 1 5 2.</_></rects>
      <tilted>0</tilted></_>
    <_>
      <rects>
        <_>
          10 8 6 2 -1.</_>
        <_>
          10 8 3 2 2.</_></rects>
      <tilted>1</tilted></_>
    <_>
      <rects>
        <_>
          10 9 3 7 -1.</_>
        <_>
          11 9 1 7 3.</_></rects>
      <tilted>0</tilted></_>
    <_>
      <rects>
        <_>
          10 15 3 4 -1.</_>
        <_>
          9 16 3 2 2.</_></rects>
      <tilted>1</tilted></_>
    <_>
      <rects>
        <_>
          10 16 4 3 -1.</_>
        <_>
          9 17 4 1 3.</_></rects>
      <tilted>1</tilted></_>
    <_>
      <rects>
        <_>
          10 17 3 5 -1.</_>
        <_>
          11 17 1 5 3.</_></rects>
      <tilted>0</tilted></_>
    <_>
      <rects>
        <_>
          10 17 3 6 -1.</_>
        <_>
          10 20 3 3 2.</_></rects>
      <tilted>0</tilted></_>
    <_>
      <rects>
        <_>
          10 18 3 2 -1.</_>
        <_>
          11 18 1 2 3.</_></rects>
      <tilted>0</tilted></_>
    <_>
      <rects>
        <_>
          10 19 4 4 -1.</_>
        <_>
          10 21 4 2 2.</_></rects>
      <tilted>0</tilted></_>
    <_>
      <rects>
        <_>
          10 19 5 4 -1.</_>
        <_>
          10 21 5 2 2.</_></rects>
      <tilted>0</tilted></_>
    <_>
      <rects>
        <_>
          11 1 6 3 -1.</_>
        <_>
          13 3 2 3 3.</_></rects>
      <tilted>1</tilted></_>
    <_>
      <rects>
        <_>
          11 2 2 4 -1.</_>
        <_>
          11 3 2 2 2.</_></rects>
      <tilted>0</tilted></_>
    <_>
      <rects>
        <_>
          11 2 2 9 -1.</_>
        <_>
          11 5 2 3 3.</_></rects>
      <tilted>0</tilted></_>
    <_>
      <rects>
        <_>
          11 3 3 3 -1.</_>
        <_>
          12 3 1 3 3.</_></rects>
      <tilted>0</tilted></_>
    <_>
      <rects>
        <_>
          11 5 3 8 -1.</_>
        <_>
          11 9 3 4 2.</_></rects>
      <tilted>0</tilted></_>
    <_>
      <rects>
        <_>
          11 5 3 18 -1.</_>
        <_>
          11 14 3 9 2.</_></rects>
      <tilted>0</tilted></_>
    <_>
      <rects>
        <_>
          11 6 1 3 -1.</_>
        <_>
          11 7 1 1 3.</_></rects>
      <tilted>0</tilted></_>
    <_>
      <rects>
        <_>
          11 7 3 6 -1.</_>
        <_>
          12 9 1 2 9.</_></rects>
      <tilted>0</tilted></_>
    <_>
      <rects>
        <_>
          11 8 3 14 -1.</_>
        <_>
          11 15 3 7 2.</_></rects>
      <tilted>0</tilted></_>
    <_>
      <rects>
        <_>
          11 9 3 6 -1.</_>
        <_>
          12 9 1 6 3.</_></rects>
      <tilted>0</tilted></_>
    <_>
      <rects>
        <_>
          11 10 2 3 -1.</_>
        <_>
          12 10 1 3 2.</_></rects>
      <tilted>0</tilted></_>
    <_>
      <rects>
        <_>
          11 11 3 6 -1.</_>
        <_>
          12 13 1 2 9.</_></rects>
      <tilted>0</tilted></_>
    <_>
      <rects>
        <_>
          11 12 2 1 -1.</_>
        <_>
          12 12 1 1 2.</_></rects>
      <tilted>0</tilted></_>
    <_>
      <rects>
        <_>
          11 12 3 1 -1.</_>
        <_>
          12 12 1 1 3.</_></rects>
      <tilted>0</tilted></_>
    <_>
      <rects>
        <_>
          11 12 3 2 -1.</_>
        <_>
          12 12 1 2 3.</_></rects>
      <tilted>0</tilted></_>
    <_>
      <rects>
        <_>
          11 13 3 3 -1.</_>
        <_>
          12 14 1 1 9.</_></rects>
      <tilted>0</tilted></_>
    <_>
      <rects>
        <_>
          11 13 2 2 -1.</_>
        <_>
          12 13 1 2 2.</_></rects>
      <tilted>0</tilted></_>
    <_>
      <rects>
        <_>
          11 13 3 9 -1.</_>
        <_>
          12 16 1 3 9.</_></rects>
      <tilted>0</tilted></_>
    <_>
      <rects>
        <_>
          11 13 3 6 -1.</_>
        <_>
          11 16 3 3 2.</_></rects>
      <tilted>0</tilted></_>
    <_>
      <rects>
        <_>
          11 14 3 1 -1.</_>
        <_>
          12 14 1 1 3.</_></rects>
      <tilted>0</tilted></_>
    <_>
      <rects>
        <_>
          11 14 3 2 -1.</_>
        <_>
          12 14 1 2 3.</_></rects>
      <tilted>0</tilted></_>
    <_>
      <rects>
        <_>
          11 14 6 2 -1.</_>
        <_>
          13 16 2 2 3.</_></rects>
      <tilted>1</tilted></_>
    <_>
      <rects>
        <_>
          11 14 3 4 -1.</_>
        <_>
          11 16 3 2 2.</_></rects>
      <tilted>0</tilted></_>
    <_>
      <rects>
        <_>
          11 15 3 3 -1.</_>
        <_>
          12 16 1 1 9.</_></rects>
      <tilted>0</tilted></_>
    <_>
      <rects>
        <_>
          11 15 3 3 -1.</_>
        <_>
          11 16 3 1 3.</_></rects>
      <tilted>0</tilted></_>
    <_>
      <rects>
        <_>
          11 16 3 2 -1.</_>
        <_>
          12 17 1 2 3.</_></rects>
      <tilted>1</tilted></_>
    <_>
      <rects>
        <_>
          11 16 3 3 -1.</_>
        <_>
          11 17 3 1 3.</_></rects>
      <tilted>0</tilted></_>
    <_>
      <rects>
        <_>
          11 17 3 5 -1.</_>
        <_>
          12 17 1 5 3.</_></rects>
      <tilted>0</tilted></_>
    <_>
      <rects>
        <_>
          11 17 3 6 -1.</_>
        <_>
          11 19 3 2 3.</_></rects>
      <tilted>0</tilted></_>
    <_>
      <rects>
        <_>
          11 18 10 6 -1.</_>
        <_>
          11 18 5 3 2.</_>
        <_>
          16 21 5 3 2.</_></rects>
      <tilted>0</tilted></_>
    <_>
      <rects>
        <_>
          11 19 3 3 -1.</_>
        <_>
          12 19 1 3 3.</_></rects>
      <tilted>0</tilted></_>
    <_>
      <rects>
        <_>
          12 3 2 3 -1.</_>
        <_>
          11 4 2 1 3.</_></rects>
      <tilted>1</tilted></_>
    <_>
      <rects>
        <_>
          12 5 1 2 -1.</_>
        <_>
          12 6 1 1 2.</_></rects>
      <tilted>0</tilted></_>
    <_>
      <rects>
        <_>
          12 6 1 4 -1.</_>
        <_>
          12 7 1 2 2.</_></rects>
      <tilted>0</tilted></_>
    <_>
      <rects>
        <_>
          12 8 3 1 -1.</_>
        <_>
          13 9 1 1 3.</_></rects>
      <tilted>1</tilted></_>
    <_>
      <rects>
        <_>
          12 8 10 4 -1.</_>
        <_>
          12 8 5 2 2.</_>
        <_>
          17 10 5 2 2.</_></rects>
      <tilted>0</tilted></_>
    <_>
      <rects>
        <_>
          12 11 2 1 -1.</_>
        <_>
          13 11 1 1 2.</_></rects>
      <tilted>0</tilted></_>
    <_>
      <rects>
        <_>
          12 11 3 1 -1.</_>
        <_>
          13 11 1 1 3.</_></rects>
      <tilted>0</tilted></_>
    <_>
      <rects>
        <_>
          12 12 3 2 -1.</_>
        <_>
          13 12 1 2 3.</_></rects>
      <tilted>0</tilted></_>
    <_>
      <rects>
        <_>
          12 17 3 2 -1.</_>
        <_>
          13 18 1 2 3.</_></rects>
      <tilted>1</tilted></_>
    <_>
      <rects>
        <_>
          12 17 3 5 -1.</_>
        <_>
          13 17 1 5 3.</_></rects>
      <tilted>0</tilted></_>
    <_>
      <rects>
        <_>
          12 18 3 2 -1.</_>
        <_>
          13 18 1 2 3.</_></rects>
      <tilted>0</tilted></_>
    <_>
      <rects>
        <_>
          13 1 1 6 -1.</_>
        <_>
          13 4 1 3 2.</_></rects>
      <tilted>0</tilted></_>
    <_>
      <rects>
        <_>
          13 3 2 6 -1.</_>
        <_>
          13 5 2 2 3.</_></rects>
      <tilted>0</tilted></_>
    <_>
      <rects>
        <_>
          13 4 6 6 -1.</_>
        <_>
          13 4 3 6 2.</_></rects>
      <tilted>1</tilted></_>
    <_>
      <rects>
        <_>
          13 10 3 2 -1.</_>
        <_>
          14 10 1 2 3.</_></rects>
      <tilted>0</tilted></_>
    <_>
      <rects>
        <_>
          13 10 3 6 -1.</_>
        <_>
          14 10 1 6 3.</_></rects>
      <tilted>0</tilted></_>
    <_>
      <rects>
        <_>
          13 13 3 1 -1.</_>
        <_>
          14 13 1 1 3.</_></rects>
      <tilted>0</tilted></_>
    <_>
      <rects>
        <_>
          14 1 8 3 -1.</_>
        <_>
          13 2 8 1 3.</_></rects>
      <tilted>1</tilted></_>
    <_>
      <rects>
        <_>
          14 2 3 6 -1.</_>
        <_>
          12 4 3 2 3.</_></rects>
      <tilted>1</tilted></_>
    <_>
      <rects>
        <_>
          14 3 8 18 -1.</_>
        <_>
          14 9 8 6 3.</_></rects>
      <tilted>0</tilted></_>
    <_>
      <rects>
        <_>
          14 8 3 8 -1.</_>
        <_>
          15 8 1 8 3.</_></rects>
      <tilted>0</tilted></_>
    <_>
      <rects>
        <_>
          14 10 3 6 -1.</_>
        <_>
          15 12 1 2 9.</_></rects>
      <tilted>0</tilted></_>
    <_>
      <rects>
        <_>
          14 10 3 5 -1.</_>
        <_>
          15 10 1 5 3.</_></rects>
      <tilted>0</tilted></_>
    <_>
      <rects>
        <_>
          14 10 4 6 -1.</_>
        <_>
          15 10 2 6 2.</_></rects>
      <tilted>0</tilted></_>
    <_>
      <rects>
        <_>
          14 11 4 2 -1.</_>
        <_>
          15 11 2 2 2.</_></rects>
      <tilted>0</tilted></_>
    <_>
      <rects>
        <_>
          14 12 2 2 -1.</_>
        <_>
          15 12 1 2 2.</_></rects>
      <tilted>0</tilted></_>
    <_>
      <rects>
        <_>
          14 16 3 3 -1.</_>
        <_>
          13 17 3 1 3.</_></rects>
      <tilted>1</tilted></_>
    <_>
      <rects>
        <_>
          15 1 8 13 -1.</_>
        <_>
          15 1 4 13 2.</_></rects>
      <tilted>1</tilted></_>
    <_>
      <rects>
        <_>
          15 2 7 3 -1.</_>
        <_>
          14 3 7 1 3.</_></rects>
      <tilted>1</tilted></_>
    <_>
      <rects>
        <_>
          15 2 8 3 -1.</_>
        <_>
          14 3 8 1 3.</_></rects>
      <tilted>1</tilted></_>
    <_>
      <rects>
        <_>
          15 4 5 3 -1.</_>
        <_>
          14 5 5 1 3.</_></rects>
      <tilted>1</tilted></_>
    <_>
      <rects>
        <_>
          15 6 6 3 -1.</_>
        <_>
          17 6 2 3 3.</_></rects>
      <tilted>0</tilted></_>
    <_>
      <rects>
        <_>
          15 8 3 6 -1.</_>
        <_>
          16 8 1 6 3.</_></rects>
      <tilted>0</tilted></_>
    <_>
      <rects>
        <_>
          15 8 3 9 -1.</_>
        <_>
          16 8 1 9 3.</_></rects>
      <tilted>0</tilted></_>
    <_>
      <rects>
        <_>
          15 10 3 4 -1.</_>
        <_>
          16 10 1 4 3.</_></rects>
      <tilted>0</tilted></_>
    <_>
      <rects>
        <_>
          15 12 1 9 -1.</_>
        <_>
          15 15 1 3 3.</_></rects>
      <tilted>0</tilted></_>
    <_>
      <rects>
        <_>
          15 16 3 3 -1.</_>
        <_>
          14 17 3 1 3.</_></rects>
      <tilted>1</tilted></_>
    <_>
      <rects>
        <_>
          16 1 4 4 -1.</_>
        <_>
          15 2 4 2 2.</_></rects>
      <tilted>1</tilted></_>
    <_>
      <rects>
        <_>
          16 10 3 5 -1.</_>
        <_>
          17 10 1 5 3.</_></rects>
      <tilted>0</tilted></_>
    <_>
      <rects>
        <_>
          16 10 3 6 -1.</_>
        <_>
          17 10 1 6 3.</_></rects>
      <tilted>0</tilted></_>
    <_>
      <rects>
        <_>
          17 0 5 4 -1.</_>
        <_>
          16 1 5 2 2.</_></rects>
      <tilted>1</tilted></_>
    <_>
      <rects>
        <_>
          17 0 6 4 -1.</_>
        <_>
          16 1 6 2 2.</_></rects>
      <tilted>1</tilted></_>
    <_>
      <rects>
        <_>
          17 0 7 4 -1.</_>
        <_>
          16 1 7 2 2.</_></rects>
      <tilted>1</tilted></_>
    <_>
      <rects>
        <_>
          17 5 4 3 -1.</_>
        <_>
          16 6 4 1 3.</_></rects>
      <tilted>1</tilted></_>
    <_>
      <rects>
        <_>
          17 10 3 6 -1.</_>
        <_>
          18 11 1 6 3.</_></rects>
      <tilted>1</tilted></_>
    <_>
      <rects>
        <_>
          17 15 3 4 -1.</_>
        <_>
          18 16 1 4 3.</_></rects>
      <tilted>1</tilted></_>
    <_>
      <rects>
        <_>
          17 15 4 5 -1.</_>
        <_>
          17 15 2 5 2.</_></rects>
      <tilted>1</tilted></_>
    <_>
      <rects>
        <_>
          18 1 2 2 -1.</_>
        <_>
          19 1 1 2 2.</_></rects>
      <tilted>0</tilted></_>
    <_>
      <rects>
        <_>
          18 9 4 4 -1.</_>
        <_>
          18 10 4 2 2.</_></rects>
      <tilted>0</tilted></_>
    <_>
      <rects>
        <_>
          18 13 4 6 -1.</_>
        <_>
          19 14 2 6 2.</_></rects>
      <tilted>1</tilted></_>
    <_>
      <rects>
        <_>
          18 16 4 4 -1.</_>
        <_>
          18 17 4 2 2.</_></rects>
      <tilted>0</tilted></_>
    <_>
      <rects>
        <_>
          19 1 4 6 -1.</_>
        <_>
          19 4 4 3 2.</_></rects>
      <tilted>0</tilted></_>
    <_>
      <rects>
        <_>
          19 2 5 6 -1.</_>
        <_>
          19 5 5 3 2.</_></rects>
      <tilted>0</tilted></_>
    <_>
      <rects>
        <_>
          19 15 4 5 -1.</_>
        <_>
          20 16 2 5 2.</_></rects>
      <tilted>1</tilted></_>
    <_>
      <rects>
        <_>
          21 0 2 2 -1.</_>
        <_>
          21 0 1 1 2.</_>
        <_>
          22 1 1 1 2.</_></rects>
      <tilted>0</tilted></_>
    <_>
      <rects>
        <_>
          21 0 2 3 -1.</_>
        <_>
          22 0 1 3 2.</_></rects>
      <tilted>0</tilted></_>
    <_>
      <rects>
        <_>
          21 1 2 1 -1.</_>
        <_>
          22 1 1 1 2.</_></rects>
      <tilted>0</tilted></_>
    <_>
      <rects>
        <_>
          22 11 2 11 -1.</_>
        <_>
          22 11 1 11 2.</_></rects>
      <tilted>1</tilted></_></features></cascade>
</opencv_storage>
